25 4 10
25 50 40 30 20 10 
-0.260968228 -0.459427602 0.533481563 -0.069411591 -0.226185175 0.018184578 0.184799581 0.387020478 -0.463866085 0.534997022 -0.615528330 0.808173559 -0.165547086 -0.448372725 0.492370941 0.353105313 -0.043289985 -0.444100703 -0.433133946 -0.285088656 -0.586284927 0.763210521 0.689599876 0.638298262 0.635429522 -0.652429149 0.237424851 0.311986562 -0.575594271 -0.516205251 0.087756051 -0.270311591 -0.096439905 -0.085924863 0.219290750 -0.256328290 -0.956348447 0.643811344 0.049418892 -0.186166354 -0.006521536 -0.209963626 0.304957203 -0.088928549 0.349147008 0.078203681 0.169381447 0.369141448 0.013112517 0.389741442 -0.081800048 0.017844175 -0.473622951 0.194639269 0.189252985 0.478598973 0.180860394 -0.028449453 -0.080814395 0.023728141 0.171315653 0.535752989 -0.542292364 -0.103091538 0.579896926 0.123690172 -0.214469357 -0.346008989 -0.486280438 0.185582241 -0.429044465 -0.291253395 -0.295775522 0.065819917 0.482611201 0.685650844 0.486853274 -0.374498832 -0.268728055 0.111337367 -0.351591704 -0.281154984 -0.675545682 -0.103439808 -0.263699336 -0.042374950 0.361293374 -0.092939299 -0.490731120 0.180433188 0.434644259 0.428731834 0.331186512 0.191330310 0.397495888 -0.087137438 0.429563280 -0.493072298 -0.140497444 -0.097928196 -0.249086373 0.140329808 -0.262087258 0.336392951 -0.394215117 -0.249592946 0.630538414 0.581708798 -0.137185211 -0.192274140 0.186522210 -0.139088107 0.002456740 -0.262155151 -0.636051246 0.597409077 -0.094898366 0.489681614 0.794136334 0.245882170 0.173562724 -0.171958611 0.091570788 -0.010391552 -0.366837945 0.367979659 0.087148335 -0.067611027 0.652381649 -0.587885578 0.463698980 0.298185260 -0.154750335 -0.428135143 -0.271727782 0.163824106 -0.354431614 0.055070650 -0.101794488 0.315931842 -0.112226076 -0.443850044 0.188991377 0.018899893 -0.571255213 0.222034733 0.688144120 -0.196291624 0.462187567 -0.430539872 0.338706995 -0.298877641 0.055777958 -0.546443789 0.205593321 0.192297875 0.271817836 0.338139098 -0.429021914 -0.551523211 0.098002226 0.055380567 0.180021987 0.203482162 -0.104876858 -0.524905024 0.256417945 0.044189397 -0.154040624 0.539210621 0.478547041 -0.043309077 -0.043658987 0.348804088 -0.429136021 0.267326884 0.408639530 0.035739269 -0.493512722 -0.408213488 -0.750631164 -0.394920041 0.393082228 -0.480099085 0.586944556 0.388909948 -0.270472968 -0.014645058 0.308010974 -0.262901700 -0.074449904 0.419220257 0.885657520 -0.039639898 0.109536115 -0.583582989 -0.060787686 -0.265860192 0.230966399 -0.158389041 0.211661122 -0.201406903 0.059222971 -0.172278915 -0.402510550 0.268255769 -0.393538109 -0.049924455 -0.002563197 -0.210984512 -0.713280496 -0.241830562 -0.067783502 0.607593363 0.729789508 0.185537278 0.049668874 -0.377194545 1.217351727 -0.517069442 -0.254421436 0.269086775 -0.275265577 0.550560569 1.630943561 -0.480382899 0.003341777 0.019363994 0.271957096 -0.257205329 -0.471109562 -0.551342724 -0.654068027 0.313120265 0.442761799 -0.068830570 -1.036104067 -0.624623004 -0.925047211 -0.196082159 0.573630664 0.234580523 -0.305200354 -0.134506164 -0.936978971 0.027357974 -0.224238167 0.199201689 0.482631549 0.626335097 1.798275759 -0.378998573 0.142048402 0.346217231 0.154518941 0.000192239 -0.569161074 -0.260130647 -0.221921473 0.563950801 0.417791721 0.145915223 0.205108217 0.119046020 -0.073373182 -0.298111475 0.407176501 -0.222800378 0.216086306 -0.059350597 -0.355078956 0.154199281 -0.363957488 -0.311433192 0.435932646 0.338472174 0.043117705 -0.258383020 -0.282677694 -0.400906400 0.329957510 -0.039445098 0.075914868 0.351130786 -0.350917006 -0.235304382 -0.450854812 0.392810816 -0.008489728 -0.073555190 0.071072026 -0.233257839 -0.259142624 -0.037430952 0.254448073 0.675807493 -0.272222920 0.201823694 -0.343175713 -0.127495279 -0.064572240 0.117393707 0.072530582 0.083642103 -0.080889309 0.038132878 -0.545468319 -0.051022236 0.057471065 0.403337333 0.464252278 -0.368119132 0.154504074 0.308508059 -0.468070854 0.330445947 0.336183427 -0.226611072 -0.072941885 -0.180318613 -0.083605457 0.042225847 -0.356823492 0.557981892 0.139922462 0.238028330 -0.048651408 0.336405531 -0.420935773 0.146248816 0.325251015 -0.066118351 0.269844662 0.319974406 -0.399621529 -0.286519933 0.089223956 -0.229144108 -0.304122814 0.270001977 0.544505148 0.437568291 0.676680813 0.579723738 -0.269866604 -0.050309763 0.348872341 0.247418333 0.202792399 -0.776757369 0.049414853 0.109137934 -0.371679540 -0.325636722 -0.434144276 -0.114583386 0.189199499 -0.310480056 -0.600639011 -0.103050620 -0.671274748 -0.457553626 -0.528631235 0.546733230 0.582736696 -0.689748327 -0.647387840 -0.488264332 -0.699971232 0.042711671 0.636124728 0.132862331 0.048081912 -0.268094191 -0.483583115 0.137746933 0.148008759 0.261910026 0.506143468 0.399314264 1.575009604 -0.252030921 -0.499908444 0.349299600 0.566952437 -0.453841933 -0.840938707 -0.155798170 -0.305277829 0.048449151 0.136993692 0.166019130 0.347827185 0.242996105 0.538293202 -0.576101801 -0.676451988 0.332026124 -0.293816950 0.649694732 0.375055912 -0.771398342 -0.538053076 0.163633208 -0.301504109 -0.530176158 -1.099886003 -0.298390012 -0.090685751 0.323755608 0.182064816 0.027300547 0.281184028 0.290797358 0.410429915 0.330816745 0.259014797 -0.277674531 -0.567587121 -0.033879427 -0.430559013 0.394791646 -0.144805823 -0.416348766 -0.272270882 -0.237651648 0.471630497 0.238225541 0.009390007 -0.128078185 -0.420310607 -0.067673022 0.144711639 0.248850361 0.005081332 -0.162465285 0.420928315 0.178319563 -0.313364143 -0.668996334 -0.790398964 -0.031735042 -0.263818625 0.234186522 0.412888738 0.143471336 0.456621762 -0.651861473 0.239780734 0.495666372 0.385799738 -0.071706541 -0.214142016 0.776061089 0.297488801 0.343467785 0.107907820 -0.187204757 0.510703996 -0.249333373 0.200186163 -0.410336619 -0.340133008 0.105010040 0.126495071 0.569227088 0.468271859 -0.454101532 -0.093533980 -0.505656128 0.307597492 0.153234871 0.071689413 -0.013544967 0.107838078 -0.384304331 -0.387905515 0.046000236 -1.025314951 0.145110927 0.033754509 0.470458212 -0.045532579 -0.033640498 -0.502096933 0.466199843 0.309808649 0.137775811 -0.078685818 0.228002817 0.454755343 -0.187415134 -0.230324158 0.236187996 -0.096904728 -0.564655024 0.127986715 -0.617733064 -0.629635283 -0.005501792 0.573038860 -0.383205664 -0.274285104 -0.476971407 -0.123787861 0.719578182 -0.360247626 0.162532120 0.073908690 0.133909081 0.802274693 0.100510390 -0.030167547 -0.475096896 0.476692979 0.035165901 -0.310700367 0.117474321 0.507104132 -0.076335252 0.247018984 0.061235592 -0.313632859 -0.160185794 -0.307101898 -0.258764274 -0.377685767 0.242149113 0.325128941 0.499825176 -0.414128975 -0.442463581 -0.063155509 0.174823133 0.289821571 0.510825675 0.014790933 0.014689967 0.301782281 0.434934538 -0.229400772 0.354154378 -0.235554781 0.296138691 -0.326225272 0.297771265 0.154985949 0.593966189 0.172633700 0.093102464 -0.061809490 0.078872787 -0.691610921 -0.157124546 0.252647481 -0.246855776 0.844645192 -0.829047101 -0.154830906 -0.128092172 -0.912269792 -0.140620852 -0.050359595 -0.059552352 0.033463546 0.493926817 -0.517829629 0.316723210 -0.160494722 -0.167941239 0.072239431 0.240468294 0.086435776 -0.362891101 -0.782163575 -0.075507488 -0.393357764 -0.040765372 0.647308706 0.022110660 0.153614917 -0.560049711 -0.448759572 -0.040145871 -0.024778572 -0.053002846 0.540485260 0.641775745 0.803727302 -0.022563090 0.165181433 0.439512314 -0.232976292 -0.117859738 0.436447949 -0.412393873 -0.290563983 0.391163093 0.033629094 0.515968913 0.249272013 -0.105871882 -0.096746848 -0.110998123 -0.122823880 -0.194723350 0.317560350 -0.557723207 1.493130505 -0.468116439 -0.616870544 -0.586083931 -0.783318495 -0.029110399 0.888535800 0.638181248 -0.238120670 0.265861995 0.013310329 -0.528502434 0.289424138 -0.225484154 -0.003858738 0.612687293 -0.009456848 -0.183015430 0.278123091 0.542260790 0.224105329 -0.218569675 0.330234557 0.197866756 -0.027146214 -0.147173795 0.275084953 0.522959816 0.145162830 0.342709988 -0.168048632 0.108191161 0.222159643 -0.291923957 -0.420102542 0.205252235 -0.472026741 0.427895192 -0.013829715 -0.260785493 -0.029699339 0.243663670 0.088048551 0.230554724 0.203843289 0.335774806 0.534694451 0.309368782 -0.476301029 0.179982910 -0.177022614 0.217636060 0.689831699 -0.230930283 -0.350819746 0.120835197 -0.299975909 -0.588507665 -0.298741797 0.623835491 0.050950652 0.408383435 0.105757907 -0.300163990 -0.373194783 -0.330865611 -0.683384914 -0.051024297 -0.027368312 0.433124643 -0.316213247 -0.046368586 -0.492671268 -0.468421811 -0.381656192 0.095294046 -0.447599719 -0.255359603 -0.273263465 0.448693683 0.418211667 -0.038526589 -0.089677367 -0.373297373 -0.047831530 -0.210896404 0.113940855 0.404629658 -0.101285898 0.468909820 -0.030556107 0.157621023 0.108211556 -0.243469878 0.320147684 -0.278565094 0.493038132 0.371421871 0.607543579 -0.040214876 -0.124514132 0.240470595 -0.159230323 0.515998745 0.479677805 -0.114575816 0.070190728 -0.377711671 -0.275828133 0.013602011 -0.397845887 -0.253789420 0.242240669 0.090868862 -0.514093537 -0.292055768 0.101083671 -0.067958353 -0.344059308 0.185561057 -0.155815152 -0.337949304 0.520992372 0.768589039 0.322652579 0.019513685 0.053157391 0.203390606 0.098071230 0.471655595 0.509860410 -0.534862504 -0.216650192 0.163881647 -0.763175660 -0.544190249 -0.541353233 -0.311795807 0.168691061 0.031998657 0.116504963 0.559227586 0.477499018 -0.224121515 0.112375570 -0.355589315 -0.381712214 0.123116953 0.132376791 -0.097427586 0.590764803 -0.322384231 -0.172131463 0.404171880 -0.197714164 0.076888676 -0.549859029 0.818821129 0.203570952 -0.123881435 0.176806219 0.056034066 0.045645862 0.325872605 0.165730766 -0.365657521 0.013949041 -0.061778688 0.543708540 0.341950674 0.101770004 -0.115316144 0.101254293 0.038752276 -0.652854614 0.014066374 -0.514575248 0.562755194 0.586827105 0.179311502 0.231498154 -0.506970601 -0.989644606 -0.137617032 0.586050483 -0.182727393 -0.075071988 0.458642662 0.879486803 -0.397474430 0.214011048 -0.225943785 0.246233836 -0.440737685 -0.298063653 0.024700103 -0.444613536 -0.268507967 0.146746660 0.254654902 -0.076140857 0.440537508 0.658073443 -0.342831269 -0.026000424 0.283440657 -0.092364269 0.169870603 0.839385974 -0.226253091 0.017914256 0.463189355 -0.553941575 -0.362006939 -0.673012891 0.456429615 0.345118564 0.342127750 -0.153168778 -0.111833543 0.462799472 -0.051498450 -0.428737745 -0.324184459 -0.452893854 0.177059840 -0.411261572 0.135965821 -0.129423137 -0.109530103 -0.431236446 0.496307260 -0.280083621 0.096045156 -0.441999617 0.035144631 0.271834735 0.215580053 -0.009332293 0.303821658 -0.491183679 -0.020776915 0.441801202 -0.306451613 0.295551142 0.705331030 0.334073362 0.695778736 0.246027462 -0.423748677 -0.516909390 0.023091542 -0.455533038 -0.337060184 -0.549255381 0.150072635 0.460322009 0.340083010 0.065050203 0.109345355 -0.039112482 0.506210445 -0.077432939 0.459442359 -0.257309034 0.463320937 -0.303843484 0.190444438 0.228171636 -0.078966643 -0.365500744 0.662676734 0.637682075 0.554213951 0.457104054 -0.081532334 0.281061552 0.085467835 0.300552080 0.509451277 0.711117588 0.225243198 0.096338034 -0.312768944 0.271019623 0.244275331 -0.323954312 -0.203756610 -0.126106499 -0.149792800 0.524853308 -0.546657524 0.089538035 -0.366393903 -0.499206519 -0.452940458 -0.502253093 -0.081896118 0.652501294 0.523987851 -0.274498431 0.290552808 0.485426710 -0.452025176 -0.398849606 -0.252574391 -0.172860044 -0.290536912 0.294288787 -0.466978973 -0.333155309 -0.228462520 1.343427876 0.131460396 -0.016626976 -0.530379638 -0.426368484 -0.209811380 0.780419168 0.264972884 -0.295068209 -0.217886898 -0.008358699 -0.224490091 -0.135406562 0.508991765 0.459979039 -0.140996215 0.576601484 -0.151655720 0.457591538 0.302404917 -0.130591696 0.059862081 0.127193417 0.264824366 -0.275200659 -0.100582242 1.433512536 -0.394005230 -0.766808166 -0.556906809 -0.797692898 0.274900451 -0.295449926 0.607420202 -0.226187933 0.121875668 -0.359854028 -0.172834498 -0.128338511 -0.204177007 0.417637623 0.203543224 0.442958879 -0.362433355 0.070426610 -0.122419851 -0.823155347 -0.448914042 0.196157166 -0.031449324 0.454710532 0.043066653 -0.162458814 -0.203096677 0.349558757 -0.176183126 0.114901937 0.423365516 1.209937502 -0.574830905 -0.219260231 0.314996796 0.497861197 0.326177089 -0.308180648 -0.553793613 -0.268323475 0.456356505 0.075193390 0.462796316 -0.685528956 -0.708661986 0.135479986 0.003444374 -0.164444977 -0.459440901 0.133472701 -0.373917363 -0.308002368 0.516406631 0.305892875 -0.049101933 0.314193909 0.458082116 -0.068611612 0.129410234 -0.152668844 -0.442899869 0.486433811 -0.545808258 -0.443937473 -0.583559654 -0.618045570 -0.060949681 -0.120620244 0.044058316 -0.752795203 -0.146728124 -0.134398646 -0.443750222 0.384348690 0.133808405 0.253013703 -0.184565843 -0.799095688 0.359703739 0.292749753 0.361244645 0.388059058 -0.237609047 0.619897131 -0.398514600 -0.298730430 0.491088595 -0.366275083 0.205047950 0.213989873 0.149931522 -0.035712572 -0.184983780 0.293906695 -0.259115860 0.415584843 -0.206687566 -0.189230978 0.219197384 -0.460488863 -0.150440992 -0.356868191 0.125768704 0.409743067 -0.430428749 -0.596675124 -0.112359095 -0.342883200 0.216799137 -0.273434461 -0.265813674 -0.469634083 -0.165425581 -0.402146753 -0.061368782 0.234904908 0.212656915 0.106421983 0.187610727 -0.644389702 -0.063729119 -0.164272467 0.697875425 0.416586324 -0.310639282 -0.510260008 0.446104312 0.077562792 -0.114743176 -0.908707855 0.151957352 0.458724830 -0.175943156 0.377057298 -0.118184499 -1.060297488 -0.053641343 -0.286461989 0.488433485 0.160632603 0.267415964 0.609620011 0.308738026 0.207660723 -0.274322256 -0.268063425 0.363096542 0.384198601 0.062594548 -0.210637667 -0.530980384 0.691874994 0.235007782 -0.093554491 -0.408412679 -0.924180553 0.191870304 0.035361574 0.385979434 0.344605630 -0.328236630 0.085181641 -0.216370269 0.122943815 -0.387997070 0.347626280 0.342854567 0.022593329 0.060253170 -0.149622620 0.008068048 0.258664804 0.139953190 -0.492048642 -0.074372321 -0.492536938 -0.369955454 0.593682494 0.202566607 -0.317011017 -0.213116812 -1.486062992 0.135360546 0.119167205 0.398629368 0.688215333 0.298639880 -0.105568075 0.248409579 -0.392452773 0.071214942 0.399320443 -0.326084829 0.317428461 -0.297336394 0.189128648 -0.348958720 -0.122395037 -0.447391876 0.233796106 -0.118875789 0.615369030 -0.378323257 0.483780737 -0.412289804 0.084734642 0.356630003 -0.613868983 0.576254333 -0.201085644 0.120094599 0.533250731 -0.232020971 0.544372825 0.021381664 -0.252708518 0.447264016 0.086317601 -0.156181344 0.459834770 0.099411173 0.117508649 -0.101795043 -0.292965931 0.108737156 -0.206489308 0.374094816 -0.567797942 0.080763736 -0.219533523 0.196981719 -0.377529221 -0.427683724 0.079231059 -0.009960272 0.510716872 0.141244559 0.188471930 -0.294232471 -0.053525681 -0.224280505 -0.148731956 -0.172627949 -0.125007336 0.270677501 -0.000906715 -0.175564145 0.194106561 0.470881842 0.053313559 -0.048311234 0.785587871 0.805272309 0.747836475 -0.427536077 -0.149435466 -0.310327464 0.469359416 0.184279071 -0.318533021 0.590966286 0.260538236 0.028659459 -0.030211604 -0.714899220 0.049948995 0.194785245 -0.442899869 0.355128636 -0.551136898 0.202656884 0.640536458 0.542694117 0.592652917 0.028196825 -0.525177922 0.394258569 0.720111924 0.389718540 0.512799689 -0.377651447 0.146388471 -0.094042787 -0.018601032 -0.115867367 -0.185330088 0.170255323 0.023769292 -0.104657819 0.513896554 -0.098859640 0.029816244 -0.493535299 0.124225593 -0.311090426 0.263730771 0.094963184 -0.145980448 0.181879899 0.263425356 -0.478393047 -0.355321568 0.428166983 0.492562506 0.259675760 0.132718761 0.209026709 -0.482178392 -0.293481246 0.488219855 -0.194300325 1.725043065 -0.688165539 -0.766116336 -0.640488658 -0.627104525 -0.150128603 -0.348728489 -0.227761402 -0.344355602 -0.327753533 -0.404042602 0.411064783 0.088545175 0.495143277 0.432366703 0.278578393 0.228606612 -0.392736899 -0.259306905 -0.774306752 -0.404422417 0.148770191 -0.049842929 -0.141529588 -0.263176366 -0.431699689 0.129468038 -0.404538045 -0.119928742 0.418823392 0.246384927 0.672764113 -0.234592445 0.357548484 0.003128147 0.060594501 0.746405276 -0.226300606 -0.641413372 -0.511038299 -0.496267341 -0.061075080 
-0.268308512 0.383344215 0.314204581 0.608316826 0.184947334 0.545883169 0.147327963 0.271116416 -0.114449477 -0.849353050 -0.550457388 0.069335601 -0.112166545 -0.102669676 -0.145382805 -1.029435570 0.214055237 0.034314489 -0.132825261 0.206216357 -0.575010218 -0.364910362 0.321838757 -0.658425015 -0.392728043 -0.138742217 0.553438147 0.181607076 0.449227014 0.150488447 0.468203795 -0.426716556 0.423274407 -0.363612467 0.372153870 -0.140566831 -0.631247072 0.296225618 -0.340504110 -0.083733310 -0.593496443 0.144907779 0.666338789 -0.533262792 -0.156584499 0.421964131 -0.187194186 0.528542975 0.528879912 0.215726103 -0.572795782 -0.054837690 -0.369845456 0.053388931 -0.202783599 -0.242894358 -0.034146566 0.035906114 0.305057262 0.151871817 0.693355076 -0.311893520 0.035594032 -0.120215654 0.326924628 -0.273877707 0.101046811 -0.178617511 -0.166732926 -0.073381904 0.163524080 0.061465455 0.234908093 -0.347887821 0.432522350 -0.254663135 0.458201799 0.240730816 -0.147750475 0.107340409 0.005698995 0.288671233 -0.037453491 0.490188699 -0.299755603 -0.600047833 0.030944886 -0.113077007 0.109916628 -0.139912358 -0.120749753 -0.332609605 -0.296351240 -0.540337813 -0.055858278 0.416830776 0.236705611 0.322027257 -0.443920136 -0.384899484 0.456160053 -0.201357495 0.056253124 0.446682867 0.502324957 -0.350894605 0.320297537 -0.013331718 -0.213350478 -0.235518430 -0.340209854 0.291195966 0.007002048 0.659239234 0.050101030 -0.051834126 -0.625036232 0.714851323 -0.577637514 -0.170726941 0.759494512 0.046596160 0.482955511 0.261258089 -0.510911723 0.664995623 -0.505703279 -0.239185953 -0.715502778 -0.114987907 0.064290591 -0.317429169 0.428524077 0.398934788 -0.270852473 -0.222729736 0.204379160 0.300683323 -0.425073233 -0.343507820 0.689201119 -0.200956153 -0.027474387 -0.516898741 -0.302335363 0.512984068 0.285540462 -0.192762550 0.271364227 0.328606558 0.304375508 -0.756813721 0.432294063 -0.119092825 -0.014718617 0.055552447 -0.442759306 -0.101419932 -0.279299175 0.059915698 -0.433027086 0.313688272 -0.205595886 -0.073328270 -0.434881182 0.410739555 0.190626333 0.333102669 0.222235169 -0.150862784 0.491202028 -0.003929344 -0.391585706 0.045271725 -0.450889416 -0.213945892 -0.316935538 0.170204509 0.421176162 -0.367568775 -0.092496625 0.120864964 0.178265793 0.386087362 0.016653571 -0.555196344 0.311615548 0.008381442 0.375042033 0.039496166 0.007578476 0.101812491 -0.372480248 -0.386113717 0.303570678 0.118590962 -0.010655935 -0.026255127 0.177246080 -0.277727806 -0.473363911 0.106787675 -0.155628328 0.494499662 0.080742498 0.011025842 0.072367088 -0.547269814 0.063447607 -0.722990078 0.182575476 0.156401845 -0.023564795 0.183015965 -0.703682741 -0.008898920 -0.241379606 0.382901166 0.458784843 -0.712530733 -0.206600083 0.286448510 0.277295641 -0.042454723 -0.621455208 0.431302275 0.284803797 0.353256121 0.549836740 0.138995184 0.636219515 -0.013151893 0.226969814 0.489560147 -0.222104963 -0.161811511 0.542338167 0.193866411 -0.260427583 0.320627162 0.170096988 0.007708083 -0.205742453 -0.222482563 -0.240389810 0.337733764 -0.083473187 -0.520868162 -0.391482180 -0.073310699 -0.377365118 -0.505767301 -0.290930767 0.263252771 0.003283847 0.261367324 0.523253234 -0.225842581 0.497801971 0.106289399 0.079555271 -0.287751961 0.075173124 0.525298836 -0.294156979 -0.548808441 -0.025842064 0.321227753 0.186005566 -0.422451331 -0.234273230 -0.317462210 -0.104939493 0.647792913 -0.173958926 0.238201127 -0.102055426 -0.628028288 0.031704446 -0.241015159 0.468822163 -0.539314564 -0.193881627 -0.489823069 -0.085086777 -0.049750179 -0.289406557 -0.117718143 0.246655821 0.141691315 0.356584673 0.055130806 -0.483387002 -0.260293501 0.188512529 -0.155460783 -0.351904704 0.187776637 -0.174481326 -0.300529355 0.459857434 0.018451758 -0.021980784 0.015245081 0.548874302 -0.435345273 -0.601769180 0.110856417 -0.106312000 0.560194346 0.098170488 0.364724352 -0.056168464 -0.279358085 -0.378422353 -0.647507326 0.695584970 0.442120103 0.312313122 -0.069686481 -0.607289566 -0.285259155 -0.713984807 0.142565351 -0.122924173 0.143851649 0.200113641 0.215711562 -0.019341531 0.064415278 -0.601467712 0.018580004 -0.091618295 0.358327640 -0.636299313 -0.380535939 0.309456692 0.205929435 -0.595399794 0.049681101 0.376583188 0.201984992 -0.467697075 -0.709615632 0.227419789 0.647912100 0.383355469 0.145329245 0.703186018 0.616070951 0.481871270 0.054850935 -0.026936927 0.183240430 -0.448058343 -1.074869507 -0.141937178 -0.201959722 0.593122368 0.334043852 -0.040033306 -0.364771310 -0.148063779 0.193231035 -0.046164069 -0.497399642 -0.017886784 0.749677226 0.488204277 -0.482461053 -0.004087425 -0.804321265 -0.249517241 -0.385178706 -0.268105945 0.167152680 -0.222046799 0.452563454 -0.048109738 -0.115868459 0.525578736 -0.527664029 0.386748540 -0.203901592 0.481621697 -0.729725394 0.330156422 0.551505267 0.082381875 -0.186436940 -0.004376593 0.260104857 -0.086752616 0.404266428 -0.252548854 -0.080233508 0.241005342 0.290053075 -0.104254916 -0.210846647 -0.060121001 0.503037220 0.387321637 -0.143737559 0.020145030 0.022386533 -0.342279197 -0.442549235 0.288063999 -0.800272200 -0.554237410 -0.353170288 -0.200922522 -0.886724381 0.456196064 -0.106889175 -0.245219696 0.529576569 0.690406944 0.027224943 -0.420153685 -0.358961895 0.548968724 0.565899854 0.109595121 0.237325540 -0.672199774 -0.445821969 0.077831397 -0.212844794 0.361430422 -0.173719210 0.135153834 0.055843917 0.768236364 0.029085776 0.101414663 -0.148818943 -0.683838261 0.178149467 0.196014372 -0.504883892 0.202745381 -0.416929549 0.456736776 0.438597610 0.300681532 0.699896276 0.018927653 0.242850982 0.096946854 -0.081155452 0.095765303 -0.442337123 -0.333789359 -0.683486263 -0.143870048 0.189636859 0.721212073 -0.196657413 -0.757838523 -0.277642514 0.104028594 -0.179553054 -0.143755593 0.461769910 0.355622355 0.396064132 -0.024541497 -0.128250595 0.096211346 0.033251751 0.024439407 0.520709920 0.309423204 0.563343545 0.182928134 -0.240931849 0.344907900 -0.469437230 -0.439643920 0.377645663 -0.334325726 0.782107560 0.197701670 0.289422608 0.200296595 -0.263752375 -0.047222436 -0.526995553 -0.026566668 -0.090538253 -0.559947912 -0.519911181 -0.035796481 -0.067210511 0.833778630 -0.489079121 0.596872606 0.294029248 0.156141594 0.091676678 -0.299930213 -0.395652079 -0.514371133 0.489997319 -0.337185782 -0.108678474 0.181798870 0.532700461 0.204274876 0.099960899 0.263927869 0.252994529 0.678603132 0.347239301 0.063825051 0.299979143 -0.471189571 -0.544396093 0.426358515 -0.089013939 -0.388685109 -0.205987197 -0.475324366 0.712697592 -0.201216734 -0.342512627 0.412716075 -0.099316758 0.004286576 0.004603500 -0.619871680 0.373062694 -0.627719038 -0.269682724 0.196930811 -0.296578937 -0.315031842 -0.642982676 -0.062391591 0.661277263 -0.430099716 -0.232685085 0.158386068 0.417793750 -0.565574895 -0.638582290 -0.273750991 0.485248910 0.533670895 -0.099169999 0.308062508 0.126313938 0.239838682 0.368230869 0.463987635 -0.347054304 0.329991672 -0.842874468 0.562455065 -0.489931196 0.524031679 0.054811911 -0.065932314 -0.334411173 0.234648109 0.118799922 0.299286543 0.047854798 0.062012714 0.409694065 -0.165988102 -0.512438717 0.462270839 0.245098543 0.350695274 -0.787053745 0.068600366 -0.083951906 0.016278632 0.215519722 -0.314530094 -0.762802744 -0.178125062 -0.682446054 0.222938772 0.178655941 -0.040943982 0.036248484 -0.363483359 0.447223950 -0.135566104 -0.228717365 0.515069096 -0.006669388 0.334633498 -0.560987216 -0.174184795 0.257534954 0.119105949 0.410323914 -0.492052112 0.106211025 -0.043812019 0.481455163 -0.013878865 0.470398173 0.262971248 -0.145936191 -0.464434257 0.520315966 0.150064499 -0.503694867 0.048346606 0.288784051 -0.473660835 0.446294317 -0.099906585 -0.342891120 0.134446890 -0.123811331 -1.194634330 0.232100434 0.288737690 0.384390674 0.619193510 -0.936025131 0.302521050 0.138936441 -0.288947040 -0.469663998 -0.237395441 -0.600117059 0.417186818 -0.699838344 0.697323762 0.568067708 0.086030486 0.024509244 -0.057858809 0.554414570 0.385896259 -0.292427489 0.587475765 -0.205209445 -0.558286988 -0.254052522 0.372958168 0.471048482 -0.399006569 -0.285928320 -0.345021715 -0.466624485 0.037061310 -0.260843345 -0.522931019 0.316680408 -0.114990894 0.791097595 0.513407704 0.412764658 0.143711981 -0.145566407 -0.000567904 -0.334091743 -0.152756264 0.385597196 -0.110559792 0.296681249 -0.346757648 -0.033764192 0.668336129 -0.112395633 0.070406161 0.150989041 -0.390360135 -0.176803783 -0.190221069 0.377818782 0.294972828 -0.420514577 0.204953267 -0.113022962 -0.248889148 0.597564213 -0.061025483 0.522105624 -0.537339321 0.181466970 0.462686243 -0.366039130 0.366715440 0.259892084 0.107176928 -0.552399153 0.181953119 -0.090346298 -0.562968868 0.587817765 0.678530010 0.219907288 -0.108451525 0.166460875 0.506623152 0.115017496 0.185072929 -0.783427959 0.280063159 0.341408712 -0.718962760 -0.460330692 0.751373004 -0.344506820 0.090334067 0.699338176 0.148163676 -0.252720411 -0.538356510 0.059540654 -0.387678544 0.261840358 -0.061071996 -0.632187334 -0.370137100 -0.220695286 0.273105088 0.487883455 -0.036883656 -0.383108192 -0.179904300 -0.144096559 0.238892904 -0.037168796 -0.424720310 -0.095854954 -0.418153903 0.031667785 -0.793719633 0.607537501 -0.361387417 -0.101161020 -0.073031533 -0.397925318 0.365785266 0.390019597 -0.132393396 -0.132542249 -0.236271644 0.288251546 -0.526406347 0.209077214 0.211015997 0.149369434 -0.390000696 -0.365449752 0.655264752 0.436184487 -0.132788951 0.567582461 0.094806150 0.765007140 0.789546807 -0.580760887 -0.210522940 0.188885392 0.484026196 0.298261624 -0.013328562 -0.257608755 -0.513622104 0.312753567 -0.319775718 0.622650088 0.568180560 0.537697058 -0.321284477 -0.230128237 -0.476237547 -0.720062130 0.432685758 -0.599653162 0.342051061 0.044115414 -0.674687712 0.633457887 0.115554040 0.195609539 -0.079832707 0.562567875 0.222328601 0.074113737 -0.102031791 -0.544159948 -0.475939565 -0.527980584 -0.175208476 -0.188760965 -0.230918472 0.243503904 -0.124390631 0.489235625 0.096941347 0.562204084 0.407060325 0.456774840 0.296980321 -0.553929176 -0.291495495 0.132543404 -0.239469896 -0.375020413 -0.080168007 0.123167844 0.246574992 -0.312143525 -0.126548074 -0.468176491 0.544499503 -0.458220178 -0.155276085 0.007117860 0.359114663 0.368333836 0.091169013 -0.062784380 0.541968677 0.154608100 -0.372528337 0.261254766 -0.265377280 0.965612844 -0.597047420 0.399312497 0.151391388 0.434609821 -0.110075077 0.449943444 -0.607725968 -0.090336695 -0.189246389 -0.011416008 -0.472086314 -0.003808692 -0.273990426 -0.639975999 -0.129858091 0.914787183 -0.336152558 0.310703099 0.068140170 -0.465245547 -0.560771000 -0.940177420 0.796560683 0.677580149 -0.019580766 0.116924013 0.037137965 0.467349130 0.330710932 0.538702747 0.293822061 -0.468413079 -0.367105859 -1.017508915 0.676180284 0.132470619 -0.312318218 -0.482723887 -0.046598813 -0.551045490 -0.036855144 0.100250310 -0.334154799 0.545509941 0.522072231 -0.064275380 -0.067407323 0.082152073 -0.190754255 0.494357813 -0.033020186 -0.295085970 -0.108078088 -0.145245647 -0.502213595 -0.006728403 -0.042343558 0.698891693 -0.264630772 0.864251270 -0.188174723 0.116083147 -0.519646539 0.508155201 0.221055125 -0.056165292 -0.517968343 0.099635039 0.073348603 -0.114044819 0.096858978 0.503215611 0.613989822 -0.076811606 -0.346438230 -0.560087540 0.447379901 0.235855732 0.115909078 -0.625850762 -0.359657417 -0.105452548 0.158801132 0.011648581 0.878611757 -0.061050720 -0.258444113 -0.471477272 -0.234756300 -0.649741932 0.573059362 0.412517771 0.469064629 0.376183788 0.046205831 1.055677452 0.699236658 0.239540293 -0.491958890 -0.154039072 -0.593940702 0.858852369 -0.757239590 0.270891015 0.201451364 -0.535687809 0.188982059 -0.034464390 -0.205480943 0.293153878 0.623777530 -0.011210978 0.280906435 -0.472657993 -0.252171327 0.068057538 -0.004011960 0.331573058 -0.545789714 -0.352523984 0.098608853 -0.470000820 0.749941741 -0.510306589 0.615452132 0.541331167 -0.263609358 -0.002714292 -0.130727989 0.423048570 -0.086069073 0.361949931 -0.137439454 -0.480138770 0.022093860 0.066988957 0.392246041 -0.041746989 0.519979835 -0.182311277 -0.321788687 -0.348257841 -0.542072430 -0.388963588 -0.330846953 -0.254373326 -0.256478559 -0.448200826 -0.299552459 0.025413354 -0.238119823 0.196448270 -0.658349005 0.842348831 -0.485251489 0.454830314 -0.325014487 0.275786309 0.479027527 0.380931947 -0.653305638 -0.179558816 -0.198677094 0.627534423 0.068225455 0.162160875 0.537263903 0.199029321 0.079772712 0.245552730 0.271365258 0.530073044 -0.290802124 -0.300367667 0.484423226 -0.240684520 -0.492460744 0.013378434 0.303989246 -0.265285779 -0.281109409 0.184583004 -0.504381065 -0.111279330 -0.106042309 0.126009121 0.772783581 0.363340549 -0.358054010 -0.209739953 0.265091137 0.051264364 0.279589245 -0.001498262 -0.234557651 0.159697401 -0.517687997 -0.196267187 0.479460925 -0.201682148 0.444506053 0.028424293 0.026714093 -0.076722352 -0.228572262 -0.027458703 0.526430781 0.246513181 -0.138648480 -0.335047071 0.066542403 0.660911505 -0.379722808 -0.380448672 -0.474124803 0.527049019 -0.338634554 -0.060057019 0.030012110 0.362570436 -0.072264903 -0.073433376 0.595833996 -0.444213515 0.222795751 -0.611374209 -0.113991191 -0.206832490 0.381973818 -0.535068359 0.431070488 0.329204108 0.683522615 0.098595295 -0.142001835 -0.071032703 -0.054261778 -0.537637796 0.504688709 -0.079852963 0.376584075 0.235137699 -0.204061664 0.146193939 0.055975156 -0.035165501 -0.148744529 -0.147534718 0.031732535 -0.607517913 0.014834694 -0.289563909 -0.148529443 -0.232697498 -0.463874782 -0.260069893 -0.525053161 0.176092916 0.709105924 0.367326517 0.462197489 -0.528534561 -0.426596345 -0.490662256 0.146591066 0.072888636 -0.015383060 -0.354716438 0.374590175 0.268760538 -0.184551389 -0.128162199 0.593007634 -0.120112482 -0.220737963 -0.422639092 0.285953632 -0.316872553 -0.093967941 -0.333994718 -0.105342377 -0.149657657 0.510540134 0.239743063 0.273786164 0.297680152 0.180767035 -0.298349322 0.140087369 -0.557588380 -0.045523267 0.071673993 0.065105862 -0.148652967 -0.274365771 0.436835389 -0.268569593 -0.488757227 0.169580499 -0.702070869 -0.563368851 0.169346313 -0.197776655 -0.081830528 -0.336548397 -0.224437054 0.584964579 0.062514381 0.486377314 0.016556674 -0.270716549 -0.079090789 -0.367352814 0.296305403 -0.184225418 0.282562038 0.440376733 0.428606672 -0.379642125 0.403121349 -0.344499117 -0.515881296 -0.305384748 0.592806875 0.027944300 -0.036967795 -0.124770640 0.086131906 -0.602486319 -0.227508466 -0.297346801 0.462350139 0.555359130 -0.332985583 -0.132980316 0.000274291 0.408740903 0.168006444 0.383976679 0.128668234 -0.471462092 0.290855454 0.456435403 -0.510872696 0.341700976 -0.697970303 0.158926749 0.142960494 -0.343363003 0.313418062 -0.969647179 -0.947015630 0.191296633 -0.038784162 -0.431863971 -0.534657782 -0.324024098 0.429878159 -0.387781156 0.191665037 0.091373610 -0.403434056 0.172586392 0.489199764 -0.400572007 -0.414647870 0.139656761 -0.170473597 -0.199033067 0.301039947 0.203514477 0.040489736 -0.706375688 0.382599375 0.418806587 -0.025280810 0.636274480 0.108586623 0.358090720 -0.210584308 -0.701872714 0.052207525 0.290806318 0.303562828 0.328246405 -0.598217542 0.299112693 -0.033268650 0.137262356 -0.259716005 0.756220644 -0.507818430 -0.223168471 -0.407679637 0.287069374 -0.162206418 -0.523770080 -0.006122843 0.340759260 0.480056252 -0.010222173 0.089531186 -0.559868833 -0.313780865 -0.239227517 -0.377156955 0.720101662 0.236390113 -0.010698027 0.470947120 -0.372909849 -0.366016705 -0.293258445 0.253186528 0.562696844 -0.346240292 -0.011095790 -0.089362614 0.660115801 -0.531110666 0.094552310 0.157394864 0.248586017 -0.372190830 0.257533291 -0.386962527 -0.032859458 -0.254322829 0.137932796 0.676243193 -0.484514692 -0.175419843 -0.129370443 0.628549498 -0.004640979 -0.171391485 -0.559786778 -0.001650414 0.418278149 -0.085199398 0.229318363 0.621410851 0.398838901 -0.420468319 0.135106058 0.596142949 -0.113075331 -0.224537368 0.231991474 0.030368372 -0.370517760 -0.150001770 -0.318645370 0.153793135 0.263916868 0.189490882 0.271778208 -0.272914852 0.385288994 -0.215087394 -0.185149648 -0.245921442 -0.075286424 -0.046540513 -0.108252678 -0.328775714 -0.015907406 -0.702254481 -0.441207870 -0.061542982 -0.077414571 -0.164976222 -0.040944150 0.560827127 0.371457739 -0.578413397 0.401401553 -0.266698812 -0.376905140 -0.392942425 0.177401180 -0.282848696 -0.359910889 0.563812349 -0.025084005 0.409765977 -0.262366168 0.344119905 0.595293798 0.292313942 0.423071782 0.208372969 0.240870073 -0.448937437 -0.458953878 0.667513904 0.203693868 0.290139754 -0.231564893 -0.148045838 -0.568047577 -0.418348314 0.092142563 -0.183190034 -0.475066577 0.356612825 0.153110895 0.018736483 -0.384081028 -0.727396456 -0.252524252 -0.791637536 -0.047662940 0.527742327 0.159728782 0.415490953 -0.036115051 0.000415088 -0.323085024 -0.038621038 -0.585986156 -0.338214709 0.280030590 0.439102194 0.168765161 -0.035597938 -0.518351730 0.227600503 0.605448871 -0.284471792 0.089657592 -0.653312218 -0.040342781 0.046181713 -0.311975007 -0.016517114 0.548244269 0.628000682 0.331868776 0.401005110 -0.098703434 0.684121675 0.685575298 -0.436622982 -0.741933819 -0.426382043 -0.038124101 -0.166693697 0.047821792 -0.495074996 0.293107314 0.325941651 -0.239652788 0.213768525 0.514276010 -0.236248718 -0.470007756 -0.105514213 -0.431440141 -0.283560243 0.176441785 0.386718296 -0.281022389 0.259564804 -0.568290913 0.038777423 0.051056704 -0.231425094 -0.076577738 0.501230921 -0.057668042 0.036745622 0.250452852 0.380050048 -0.162587930 -0.077589481 -0.384593889 0.379832651 0.292577332 -0.128619973 -0.111169892 0.647010979 0.415096151 0.135456346 -0.416056377 0.355191528 -0.106015534 -0.446105818 -0.554778485 -0.631902134 0.376746053 0.000763749 0.493927137 0.314336209 -0.185382488 -0.365332287 -0.136652322 0.330254882 0.069767866 0.186565249 -0.557586057 -0.200095914 0.228367672 -0.169170925 -0.395448936 -0.106427000 -0.326056818 0.364377760 0.451720743 -0.323040118 -0.433963884 -0.581322356 0.684133175 0.059187766 0.210310959 -0.468760696 -0.416631903 -0.418655772 -0.187209921 -0.512173215 0.598589206 0.103118279 0.410066121 0.147843651 0.208583481 0.622846569 0.270277417 -0.758622201 0.360015918 -0.033983586 0.297633256 0.501472833 0.100371946 0.503979644 -0.113694523 -0.387081522 -0.491340458 0.426124537 0.292376826 -0.140915082 -0.290961409 0.081958051 -0.254209890 -0.263615744 -0.520245403 0.708731090 -0.406033434 -0.276124417 0.843288556 -0.327039073 -0.055053431 0.065353160 0.566747343 0.194333991 0.110200767 -0.029892848 -0.761261409 -0.606764714 -0.365146320 -0.134589831 0.142917008 -0.094048481 -0.028988806 -0.027076000 -0.761695405 0.823190159 0.423196050 0.022457862 -0.495236542 -0.751541453 -0.151582814 -0.670841946 0.623252387 -0.666825639 -0.208485602 -0.248097767 0.240183697 -0.257628672 -0.177418773 0.316752350 0.354085059 0.107754842 0.620500446 -0.331915799 -0.338246372 0.315692574 -0.577604822 0.354548516 -0.053105744 0.753769974 0.277283156 0.411555440 0.501596041 -0.048366513 0.787494659 -0.112871358 -0.277432775 -0.341056321 -0.386746932 -0.030253888 -0.619768247 -0.181221419 0.307300377 -0.493838026 -0.156898567 0.095960115 0.045897846 0.179326006 -0.586683267 0.144430341 0.464793207 0.174313997 0.801828018 -0.721472560 0.316639805 -0.053343570 0.352657740 -0.322175813 0.156652797 0.030668774 0.704036643 -0.283488373 0.457476818 0.081708562 0.736974155 -0.375158588 0.712369490 0.292543532 0.389529839 -0.566719013 0.283021842 -0.214963365 -0.234736012 0.311448427 -0.299841905 0.289057518 0.081410491 -0.119021610 -0.691049750 -0.075940612 -0.030872628 0.242330278 -0.627076220 0.141487875 -0.356647204 0.376986046 -0.272010238 0.014368097 -0.457468095 0.074817371 0.450529419 -0.074835362 0.260975388 -0.051720790 -0.288670302 0.321060234 -0.631543464 0.134992477 -0.750338138 0.350305105 0.354444653 0.223413438 0.344192979 -0.015620179 -0.330912498 -0.349371505 -0.000701143 0.610136176 -0.287509487 -0.079083539 -0.096045425 0.047109255 0.136178702 -0.008468411 -0.457427050 -0.223714585 0.047519993 -0.500990021 -0.272357041 0.076959429 -0.038120808 -0.448570192 0.488119927 0.112321188 -0.129425752 -0.169389325 -0.263458561 0.098589334 -0.176797901 -0.194991498 -0.020464972 0.428876444 0.227797780 0.401786965 0.320383357 0.231973343 0.555732838 0.209802646 -0.637546056 -0.529661919 0.113645344 -0.495819933 0.070901407 -0.385092861 0.219343669 -0.491000422 0.046190097 0.170641886 -0.024802876 -0.021176693 0.393031013 -0.231928505 0.004557482 0.257813928 0.292170770 -0.384725204 -0.045403818 0.582296304 -0.199424079 -0.358679194 -0.180229438 0.358322607 0.766855189 -0.467124334 0.484572506 -0.482352989 0.037020716 -0.313830930 -0.187891583 0.157841155 -0.335445404 0.258200956 -0.016831940 -0.195627333 -0.507141590 0.250672598 -0.364306204 0.697505320 0.474114642 -0.315203778 0.304144634 0.420313242 -0.120320408 -0.503437308 -0.088135795 0.181698205 0.163282647 -0.304116865 -0.340388488 0.375354388 0.304361404 -0.304688507 0.051249408 0.415117977 -0.666120722 -0.159601271 -0.587113001 0.477042988 0.671878846 0.449121115 1.147627552 0.699623151 -0.252679508 -0.539993385 0.092648232 0.336855447 0.590032036 -0.550545344 0.277340538 -0.065077978 -0.507062105 -0.142655235 0.340706231 0.219308716 0.578145608 0.097855944 -0.042398886 0.356002938 0.206532328 0.043184745 -0.615503190 0.307959000 0.053303369 -0.511509065 -0.309888215 -0.382844385 -0.613760772 0.661787417 0.464579651 0.593022508 0.290275446 -0.181784809 -0.130099237 -0.691032606 0.119448169 0.303594766 0.056075192 0.396179206 -0.326939226 -0.303714291 0.326905908 0.347786504 0.132789355 0.081375324 0.025430037 0.478875609 -0.114335324 -0.146529044 -0.438754429 0.226409580 0.373765466 -0.559298907 -0.566828771 -0.345037256 -0.178784446 -0.353178628 0.347593033 -0.923459405 0.658943032 -0.443428950 0.446900486 0.402581425 -0.640242099 -0.032170849 -0.115648880 0.080221962 -0.189159086 -0.208028196 0.510358243 0.110678456 -0.224160162 0.281757443 -0.358845890 -0.357950212 0.389828900 0.397818287 0.392319773 -0.257133734 0.162721932 -0.314486528 0.003231841 0.104264767 0.011662888 0.304439472 0.515041708 -0.345708719 -0.366475685 -0.522743182 0.139984377 0.600073431 0.274055135 0.231895465 -0.427629708 -0.397886167 -0.154903745 0.490820109 0.117924229 0.459137355 0.288110106 0.250137719 0.032829512 -0.104442652 -0.310527481 0.049882037 -0.307967589 -0.458732982 -0.192514113 0.113295935 0.385310149 -0.401604214 -0.064548904 0.317165541 0.055330537 0.268469373 0.273623915 -0.172433105 -0.032231159 0.039076148 0.456449656 -0.066160086 0.084860424 -0.258547979 -0.024736316 0.339355645 0.406333657 -0.101787967 0.363561204 -0.058265864 0.284285293 -0.227994791 -0.561885842 -0.145708000 0.182016642 0.408866051 -0.455204415 0.033378696 0.189070127 0.712048002 -0.104331784 -0.136871379 -0.577441992 -0.160316320 -0.866192626 -0.271307103 -0.031847872 0.245504515 -0.551064402 0.125461815 -0.384569309 0.068740303 -0.235534248 0.250322462 0.352852107 -0.542490076 -0.487074628 -0.477125011 -0.052888318 -0.033998801 0.540477925 -0.236982067 0.383196919 0.353899753 0.061774275 0.039689253 -0.514348474 -0.345523692 0.102408860 -0.372763545 -0.178285346 -0.098258945 0.300004284 0.266800374 -0.081288419 -0.084239106 -0.290761731 -0.537462059 0.325051872 0.033935839 0.091863653 0.278354883 -0.197795942 0.591591496 -0.628420399 0.393091389 0.138355483 0.080190746 -0.048548293 0.357738016 -0.105094408 0.002504058 -0.474094451 0.584235645 0.579493058 0.493086999 -0.129559214 0.174501609 -0.448045116 0.259212242 0.150736793 -0.018476215 0.210529107 0.285943422 0.489009652 0.149500362 1.106221294 1.055790166 0.325068283 -0.329374864 -0.097309774 -0.330967550 0.677670330 -0.382055813 0.605541626 -0.529709307 -0.427044089 0.792842089 -0.354487205 -0.289456940 0.797842425 0.418123781 -0.395052996 -0.562853171 -0.255743280 -0.105957586 -0.562223456 -0.357422778 0.263557786 -0.240151534 -0.099257743 0.569042791 -0.454346429 -0.002024738 0.223330224 0.484391277 0.096573978 0.611365844 -0.103976590 -0.414608675 -0.330721037 0.233931031 0.072235102 -0.371239781 -0.458269343 -0.217180445 -0.161974936 0.234557864 0.413246370 -0.548348052 -0.164916783 -0.568740974 0.512053705 -0.485582128 -0.244716966 0.010944308 0.133326972 1.210757432 0.614753748 0.503722833 -0.421000212 -0.249430374 -0.227646537 0.515978465 -0.652165770 -0.075888392 -0.165006357 0.071856958 -0.063582504 -0.234076537 0.396750100 0.444781697 0.639405279 0.319450635 0.484742565 0.381773710 -0.029970111 -0.018467578 -0.649202978 0.628903360 0.192196865 -0.190718415 -0.290758066 -0.534830157 0.388683147 0.553741817 0.683791620 -0.225421676 -0.409444988 -0.147577650 -0.890771884 -0.270692271 0.046551212 -0.338094879 0.329606293 -0.158822663 -0.088012483 0.270102408 0.264326088 -0.349176537 -0.020312755 -0.212216389 0.386494216 -0.356645360 0.816996183 -0.215838822 0.213590289 -0.397687339 -0.581110830 0.136860806 0.477885097 -0.223462657 0.351242912 0.156470261 -0.537749849 -0.442019291 -0.536843067 0.681989813 0.093098431 0.378794138 -0.372162432 -0.188388196 -0.510686688 -0.377062556 -0.119592024 -0.093890391 0.388543001 0.431095772 0.002321010 0.488129794 0.078451393 -0.053468266 0.013575603 0.429285255 -0.081038081 0.117641496 -0.619094256 0.059905834 -0.605435100 0.124229005 0.124147807 0.578452777 0.745461994 -0.037291918 0.164365174 -0.260627118 0.153101251 0.750473159 0.207050657 -0.725715883 
-0.041726120 0.363176339 -0.109564008 0.472405732 -0.243269385 0.279693104 0.418867370 0.348854689 -0.368553956 -1.191452221 -0.337936521 0.341096584 0.309571184 0.055503203 -0.784958010 0.888684309 -0.351310455 -0.005421052 -0.203570439 -0.007260024 -0.000542597 -0.307017551 0.555317291 0.456632921 0.461863945 -0.588521692 -0.038569309 0.202416312 0.116520594 0.278431347 0.850567812 0.553631705 0.523115143 -0.689658681 -0.082745854 0.266950537 0.039824038 0.207130580 -0.463763128 -0.346717180 1.021489884 -0.278861290 0.492262864 0.283282254 -0.352398595 -0.255579003 0.611454430 0.586093402 -1.287616319 -0.718036664 -0.173990289 0.409781876 -1.150653960 -0.324781452 1.309748145 0.276563621 -0.481427103 0.533285248 -1.286061460 0.785136871 0.058910763 0.687620606 -0.778128929 -0.411488204 0.358491943 0.686743349 0.310480747 -0.607360239 -0.224310090 0.772916925 0.282239843 0.371798424 0.783106992 -0.236286361 0.503227926 0.086208526 0.475402989 -0.557406117 0.738356821 -0.341522629 0.717891197 0.367320048 -0.291068103 1.040923623 0.026237347 -0.498918569 0.016251920 0.495430642 0.333483146 -0.568007029 0.105468257 -0.790452827 0.304147336 -0.443924765 -0.308433693 1.106175703 0.100707035 0.323074769 -0.429329210 -1.306807482 0.359811943 -0.769239214 0.599756697 -0.167720333 0.106080861 0.273846510 0.700570209 0.008718460 -0.572093924 0.597554398 -0.186551485 0.366138478 0.042743202 0.894799948 0.452525157 -0.544221572 -0.469426850 0.430356967 -0.428266614 0.803098557 -1.006598961 -0.292927625 0.373231868 -0.261108018 0.735060309 0.162698090 0.358124263 0.317039914 -0.505750809 0.090885885 0.131472147 0.319934565 -1.212393702 -0.788136580 0.207455275 -0.489027914 0.421148431 -0.412289954 0.648924832 0.202561111 -0.243144307 -0.357995223 -0.461118453 -0.269389490 0.105168262 0.263978434 0.648031036 0.460041449 -0.692224228 0.474275261 0.840754232 0.097904958 0.126700121 0.900693073 -0.567388353 0.398448547 -0.390213206 -0.534154978 -0.353223031 0.121311820 0.087535421 -0.280694192 -0.196833251 0.466845081 0.338969150 0.542707559 0.118099923 -0.571470227 -0.092900323 -0.114397689 -0.030355603 0.014827487 -0.022253328 -0.040933654 -0.306385768 -0.180635406 -0.479980309 0.140039410 0.240934026 0.189855602 0.103469215 -0.948824205 0.429987855 -0.679459733 0.709172129 -0.335207232 -0.363409878 0.637544181 0.961663957 0.346840210 0.171242150 0.526744116 -0.166852700 0.129953019 0.129816602 0.369676253 0.029103046 0.368872018 -0.690740961 -0.113861524 -0.242054357 0.084681612 -0.787286422 -0.103017534 0.054260468 0.329349718 0.637656771 -0.551914906 -0.642431584 -0.449644604 -0.311897448 0.024002078 -0.008671601 -0.740958194 0.372972589 0.522546022 -0.058675910 -0.173098218 0.414611015 0.349418589 0.050098963 -0.088064281 0.076501271 -0.085348745 -0.437668114 -0.237450208 -0.152279210 0.401323321 0.429486074 0.265432107 -0.003305811 0.246014360 -0.335873305 0.150896437 0.119407713 0.498861521 0.420315283 -0.430492000 0.388204614 -0.653267053 -0.042104803 -0.277215173 0.433953207 -0.936866023 -0.377651497 -0.359326135 -0.209301102 -0.501158601 0.154157981 -0.693134686 0.519410302 -0.193747441 -0.242010196 -0.367619014 -0.744638501 0.825222123 -0.003037719 -0.161146114 -0.568107559 0.685208090 0.394820534 0.137617757 0.092608666 -0.030349225 0.759566320 0.433766976 -0.095784799 -0.184173697 0.018477111 -0.227161157 0.258142193 0.722925755 -0.345863544 -0.789103175 0.482347172 0.469840424 -0.020841236 0.312843121 -0.264288375 0.009217660 0.580845877 -0.349561449 -0.591085235 0.012668871 -0.302514245 0.477981086 -0.526832192 -0.267516484 -0.096025619 -0.285750977 0.628836633 -0.187689743 -0.242985131 0.273256625 0.334881495 0.222146491 0.132943349 0.220917150 0.506504423 0.020636739 0.077249535 0.133824689 -0.253292042 0.202812608 -0.144046265 -0.566241669 -0.344105774 -0.384419714 0.392166709 -0.047948202 0.390225884 -0.456097735 -0.378120207 -0.199913636 -0.078165047 0.166585143 -0.239347516 -0.088326464 -0.260815171 -0.257218161 -0.441565112 -0.070146458 0.298131472 0.208747610 -0.206988045 0.606137281 0.655175965 -0.085230882 -0.426260401 0.469305691 -0.521351968 -0.608008987 0.401872647 0.027544340 0.293594255 0.143135270 -0.003197011 -0.295505190 -0.037575012 -0.329716205 -0.397280517 0.459388084 -0.421472991 0.491368480 -0.081985658 -0.862047695 0.372407943 -0.592165284 0.543411380 0.366967211 0.569164224 0.334427753 0.570475834 0.176552634 0.390519857 0.073564082 0.186929876 0.733232480 0.244453340 -0.275720818 0.386705153 0.018640511 -0.738601176 0.083376212 -0.408950862 0.142041526 -0.875190542 -0.992781194 0.235584760 -0.209772420 -0.373946092 -0.026508595 -0.907234491 0.172115379 0.723513539 -0.634540942 -0.285880546 -0.022376911 0.051400279 0.332885048 -0.616892977 -0.810806734 -0.383153120 0.858006106 -0.836375551 0.532425511 0.013949820 0.608959148 -0.316682804 0.759777226 -0.259887152 -0.578892589 -0.199073412 0.489843453 0.390085589 0.207988880 -0.609685192 0.049479876 0.456166614 -0.711474392 0.155425485 0.175869512 0.095109566 -0.077588625 0.269540049 -0.403791925 0.096797908 0.174245626 0.349679722 -0.538792197 0.059590908 0.241784254 -0.212064196 -0.631499189 -0.110841817 0.152512614 -0.512274777 -0.691683811 -0.107907381 0.777995246 0.277206586 -0.488135039 -0.429312696 0.405870743 0.820843415 -0.836680106 0.121346758 -0.420086785 0.444956354 -0.368023755 0.697026182 -0.347138734 0.078147996 -0.312834632 -0.237556117 0.441102536 0.284712064 -0.708530208 0.450890847 0.178839363 -0.763737778 0.052394808 -0.299464174 0.486964447 0.233878084 0.299725091 -0.587710220 0.217170619 -0.123688576 0.097447989 -0.768140931 0.008731719 -0.644498585 0.619160997 -0.147285559 -0.236951198 -0.371284503 -0.262068617 -0.690685774 0.282891651 0.730711844 0.551300053 -0.187191175 -0.182115090 -0.326583413 0.500779521 -0.051879375 0.970294306 0.424990835 0.732812994 1.356300446 0.105619339 -0.419256755 -0.393793267 -0.607132595 -0.857054740 -0.076929056 -0.453265616 -0.759328288 -0.114361336 -0.548059025 -0.772356767 -0.209527826 0.114556597 -0.151840075 1.222741268 -0.221408569 -0.258424053 0.338352360 1.217768466 1.143323478 0.137916854 -0.390247753 -0.333606735 0.417010672 0.044851754 0.325730044 0.176702839 -0.127882749 0.646173585 -0.155101276 0.442433728 0.482262653 0.152513348 -0.295753127 -0.408083435 -0.006503508 -0.207458178 0.055496563 0.167183279 -0.474417212 0.121990598 0.203352744 0.574727236 -0.025077743 -0.358098503 -0.157361470 0.046428022 0.450423457 0.276202966 -0.302760070 -0.630592100 0.184173515 -0.237531523 0.407889696 0.563233816 0.399358054 -0.200009545 0.520650720 -0.521247987 0.085771699 -0.071542625 -0.600962278 0.227440761 0.471239467 -0.317864694 0.856957446 0.175604905 -0.949166223 0.338346510 -0.046442406 -0.024851040 -0.974723653 -0.297487615 0.198807257 0.568512252 0.127367485 -0.264569811 0.928485272 -0.260435102 0.132587677 0.084227466 0.249531954 -0.792808262 -0.117491111 0.095022515 0.155150221 0.187473474 -0.435316678 0.492972194 0.462522670 -0.285744374 -0.341182300 0.940040310 -0.590294665 0.140942363 -0.446454099 -0.653136057 0.394722586 0.064409537 -0.399066944 0.153688107 -0.927960796 0.896755072 0.440248468 0.155499328 -0.288089803 -0.477920698 0.127554690 0.566543793 -0.092036502 -0.737215073 -0.686155518 1.061107819 0.956194758 -0.156866569 -0.245502668 0.176282931 0.308973487 0.176944189 0.518003092 -0.250720037 0.447152030 -0.081295909 0.102441784 -0.548579518 -0.466563919 0.158860159 -0.359760203 0.863592496 -0.580795376 -0.934011547 -0.121031978 0.491028384 -0.938665131 0.405262714 -0.589099539 0.677291443 0.481626264 -0.219136944 0.222956730 -0.340856460 0.251538965 0.726466174 -0.502807951 0.412189020 -0.683565014 0.408856110 -0.104657499 0.383618894 0.399639977 0.273496624 -0.836191068 -0.076473407 0.708061476 0.661530892 -0.196200926 -0.186218385 0.144651442 0.618543459 -0.619787618 0.886957036 -0.567575665 0.880242967 0.977820873 -0.619526252 -0.179267343 -0.377766631 -0.637868565 -0.456011371 0.210112142 -0.134892941 -0.820385686 0.411411891 0.152724963 -0.727184510 0.410949689 -0.297361763 0.365696969 1.112881950 -0.613691219 -0.348528311 0.031563966 0.501690790 1.352274295 -0.434532431 -0.475343367 -0.632668789 -0.114387231 0.919963149 0.107039141 -0.874420881 0.161915219 0.609035542 0.356272583 -0.099182369 -0.278277568 0.803592238 0.546171044 0.016679386 -0.181487991 -0.223043329 0.422868610 0.850622290 -0.554019778 0.580898881 -0.252997822 0.563814716 -0.464946135 -0.583306257 -0.027423379 -0.618070423 0.475343436 0.545989635 -0.424228850 -0.452158876 0.440998468 -0.672985421 0.516015388 -0.436082893 -0.401815899 -0.667040835 0.513930371 -0.170895130 0.452249414 0.236857794 0.217144427 -0.515229911 -0.008925922 -0.507644420 -0.020277935 -0.398927403 0.018933446 0.548123283 0.217782901 0.305307756 -0.518445077 0.143162377 0.136789162 0.256364942 0.364156611 0.146786293 -0.080392543 -0.820619682 -0.455229206 -0.405687075 -0.894650838 -0.155263461 0.173969152 0.408867426 -0.013653425 0.641111507 -0.178138421 0.480756854 0.714781124 -0.475829440 -0.270162625 0.823118435 0.236932355 0.265746311 -0.502639752 -0.566458609 0.712346196 0.561672097 0.369463923 -0.630630340 -0.890436591 0.320208661 0.071706364 0.144692899 0.410277029 0.715591133 0.159234272 -0.265439451 -0.038470035 -0.128053580 -0.056455450 0.298023179 0.693022184 0.010066312 0.003449656 -0.486159540 0.167064503 0.399048010 -0.157305695 0.490455568 -0.410283133 0.349391143 -0.306239299 0.160805687 -0.307120983 -0.555663640 -0.671134989 -0.091376142 -0.142707459 -0.019108476 -0.575591937 -0.495776294 -0.342677994 -0.139716840 0.142652676 0.207856021 0.127561218 -0.585196097 0.273897326 -0.280451950 0.809756397 0.491687403 -0.403405744 0.252323827 -0.760914779 0.236175315 0.588882390 -0.400829889 -0.116374240 -0.575624459 0.714647797 0.092014771 0.538962676 -0.317880327 0.935665174 0.625931535 -0.470350049 0.046948748 -0.351756676 0.041693037 1.158396011 -0.580484104 0.698457793 -0.592100183 0.131783481 -0.102005552 -0.024613890 -1.109536669 -0.019536971 -0.010977415 -0.693939658 0.265008432 -1.047071029 0.020943186 -0.613761366 -0.119083645 -0.031520467 0.864492241 -0.745624865 0.061711621 -0.566576920 0.916542881 0.256385057 -0.471009490 -0.270667184 0.276209864 0.374712339 -0.202669980 -0.277688443 0.214455741 0.122814957 -0.227341213 -0.186457461 -0.756563843 0.051222091 -0.652602437 0.150308670 1.055501720 -0.544100668 0.708276305 -0.732116990 -0.880723912 0.594643385 -0.240657240 0.430044913 -0.716770429 0.236711309 0.132789844 0.095505343 0.584353049 0.196149401 0.220116157 0.231521337 0.679848300 0.775950529 0.849922804 -0.252316528 -0.462595912 -0.008453776 0.581157237 -0.502920068 0.962096030 -1.024426396 -0.234255754 0.468577281 0.343540093 -0.251595922 -0.580359062 0.878051301 -0.248529870 -0.876185785 0.613291977 0.008346920 0.854097477 -0.521750098 -1.021781538 0.511476425 0.280649158 -0.488317124 0.054336097 0.427680837 0.580965237 -0.050988908 -0.557784557 0.345769354 0.113958619 0.584114059 0.145218100 0.232003122 0.303733786 -0.206611442 0.261874036 0.718377659 -0.172157268 -0.247890435 0.772895519 -0.274703345 -0.026110225 0.057606254 0.172383382 -0.590380801 0.137010031 -0.745938972 -0.005028726 -0.565602815 0.070638523 -0.210804269 -0.025368449 -0.043286041 -0.537453779 0.234744706 0.712703100 -0.537501327 -0.062791847 -0.713441824 0.722861081 0.272577160 -0.596141336 0.094786178 0.674162902 0.087386065 -0.670242805 0.144188109 0.059891871 0.060534773 -0.126449578 0.430980132 -0.469966805 -0.605923826 0.160460760 0.126921835 -0.011204877 0.060805514 -0.344467624 -0.451496758 0.101321801 -0.559727278 0.763606453 -0.645992189 0.790397546 0.255044583 0.136485315 -0.274702440 -0.075676551 -0.470046552 0.699827042 -0.311360965 0.474196694 0.138015689 -0.088365637 0.123015685 -0.256807757 -0.167244187 0.514566285 0.724310257 0.611827666 -0.060484534 -0.498759103 0.656304961 0.048874504 -0.269271284 -0.487063944 0.225596704 0.396632865 0.476440643 -0.707695392 0.042720506 -0.555829770 0.463529270 -0.373108069 -0.382958295 -0.598847768 -0.301494771 0.449204485 -0.300360279 -0.235519195 -0.624676735 0.262129175 -0.399091103 0.206068662 -0.625695253 0.139149257 0.032539322 0.518544450 -0.604873980 0.519311509 0.124088765 0.553927954 -0.501714455 0.668256034 0.164157787 -0.714603049 -0.064340594 0.652627071 0.258422030 -0.246923416 -0.096461365 -0.186372066 0.353954754 -1.026139556 -0.738054063 0.924889037 0.359666747 0.409866416 -0.483216664 -0.931562517 0.381004325 -0.998988916 0.665984502 -0.086373657 0.072413094 0.138403312 0.649597200 -0.149822605 -0.205162977 -0.007291932 0.047946282 0.936870846 0.115192548 0.412539140 0.073904618 -0.016760357 -0.588481639 0.812100469 -0.692766173 0.069448309 -0.371460340 -0.408594775 0.270085018 -0.300337325 0.634697882 -0.005165722 0.183008512 0.019566045 0.277833224 -0.113681080 -0.406815181 0.335749473 -0.888760781 -0.214242040 0.490649218 0.090709898 0.596555276 -0.115318073 0.712230919 -0.291493067 0.301386686 0.253652407 -0.258273457 0.170286061 -0.524966722 0.101154020 0.391082087 0.646560261 -0.213649832 0.007425196 0.433386670 -0.065506098 -0.370891726 0.661609886 0.304374719 0.485524698 -0.419575993 -0.856287333 0.310300639 0.198294232 0.272327361 -0.223426136 -0.890387994 0.262323128 -0.051617950 -0.919584938 -0.019934047 0.118852910 0.249028691 0.491200029 -0.448540614 -0.708502965 0.172645927 0.996372915 0.696406106 -0.340033748 -0.194644012 0.460955314 -0.405287363 0.023843389 -0.279363051 -0.107422319 0.556754907 0.527657865 -0.189568872 -0.088326313 0.110459955 0.096026440 -1.006979603 0.446014463 -0.677832765 -0.460296416 -0.341583247 -0.584500638 -1.026059827 0.364217771 -0.741910779 0.509785992 1.049139694 -0.300693808 0.072918649 0.046844121 0.890273471 0.645602284 -0.494472968 0.542574277 0.279046400 -0.139545423 -0.602723051 -0.038993658 0.068746007 -0.090992846 -1.152860086 0.074082985 -0.214463680 0.091926735 -1.070555310 -0.562743844 1.110606859 0.868593304 -0.473143321 0.131928187 -1.357281977 0.535363064 0.131097492 -0.018754047 -0.760265525 -0.105409299 -0.237503439 0.740116893 0.739851484 -0.305255157 0.266169418 0.780036503 0.593133757 0.326891279 0.636248650 -0.357768276 -0.211409849 0.441549351 0.661959657 -0.459746720 -0.119743461 0.151704335 0.285406769 0.061955661 0.074871397 -1.050713476 -0.468126566 0.524279758 0.118664607 0.107816742 0.261173860 -0.107720735 0.674242421 -0.394985002 -0.391293592 -0.236290805 0.068846070 -0.118501850 0.682657678 -0.535110648 1.106408821 -0.457612591 0.454202165 0.981841307 -0.450533992 -0.186542850 -0.320950782 -0.376843741 0.102263270 -0.378001636 0.422421668 -0.256597357 0.376694629 -0.137812123 -0.267097088 -0.214324063 0.253818572 0.159202561 0.533946998 -1.073889248 -0.300403164 -0.832729410 1.047528348 0.598188520 -0.185321151 0.166951187 -0.260881965 -0.196713190 0.941784378 0.491798265 -0.326527919 -0.258403092 0.806335240 0.885513097 -0.204410393 -0.830242969 0.315344017 0.457517114 -0.805387870 -0.041423503 0.558147290 0.605827612 0.422609923 -0.142523584 0.520715448 -0.450584092 -0.070773340 0.096263916 -0.172839499 -0.447792927 -0.879933539 -0.094888607 0.173586647 0.042906657 0.013682794 0.569011319 -0.600146599 0.248474595 -0.448921675 0.524991029 -0.160512480 0.089326359 -0.550103893 0.819096729 0.471448031 0.455263356 
-0.265671855 -0.685491414 1.003710383 0.398645587 -0.105836701 0.820866005 0.546060260 0.253605492 -0.393164327 0.784037433 1.196153989 1.002983074 -0.338941231 -0.119535905 -0.289164851 0.648086298 0.201706119 -1.259976977 0.366901297 -0.860035258 -1.036459255 0.316975301 -0.768311175 0.857977472 -1.518503861 1.153791265 -0.455320543 -0.343635799 1.098425708 0.247933644 -1.034055320 0.138935261 0.226771591 1.761223664 0.723719083 -1.062180646 0.647490072 0.567107981 1.185461065 -0.574633414 0.233184048 0.184061164 1.207731019 0.346903686 -0.511191191 -1.116729446 1.647740041 0.570506195 -2.074389503 -0.093967352 -0.146055553 -0.806837935 0.961248172 -1.046110066 0.422249175 -0.929608541 0.862884649 -0.408736454 0.879894405 1.432059229 -0.548270048 -1.321775925 0.427513833 0.466033605 -1.546808181 -0.777341750 0.324272279 -0.207389502 -0.436100867 -0.815027959 0.339578706 -0.663769861 -0.356596374 -0.598090229 0.273975407 -0.002739067 0.204049689 -1.099645213 -0.597985905 1.273415991 0.604507271 -0.230486350 1.096882327 -0.220637840 0.754899450 -0.801244848 1.266925082 -1.519161697 0.026434142 -0.121353461 -0.852762439 0.296659326 0.873400764 0.815243903 0.342377515 -0.207278239 -0.077553640 0.447056625 0.597567055 0.222807810 0.482369951 -0.147503545 0.517348015 -0.122182769 0.021956620 0.204544456 0.262327909 -0.076756198 -0.090182760 0.510533499 -0.074907654 0.642180619 -0.269891274 0.763701299 0.003845295 0.807271750 -0.112016817 0.645937160 -0.091116038 0.690414796 0.538005899 0.507703249 0.015088891 0.189156066 0.090535145 0.158772887 0.770166701 1.942127885 0.750143321 1.201383762 0.202498222 0.135809779 0.023717843 1.329775558 -0.184917088 0.261056826 -1.692777578 -0.618049150 -0.106345840 -0.034132460 -1.045940517 -1.383952859 0.464895323 -1.098247057 -2.006000317 1.046896712 -0.116715397 0.544148081 -0.590809961 1.963104051 0.583658559 -0.956066827 0.471676321 -0.742728634 -1.359246099 -0.218517683 1.474824395 0.911339498 0.635633312 0.577458611 0.303955614 0.634753272 0.308517411 0.101771525 0.433169901 -0.766377850 -0.795068789 -0.412973836 0.259054919 1.238609632 -0.903081390 -0.716124873 -0.035458032 0.523872613 -0.203875158 -0.387141038 1.466529718 0.344244336 -0.273714992 -0.106761395 0.495334465 0.876589432 -0.516245463 0.225172745 0.077761306 -0.262074194 0.386195223 0.373268905 -0.400377141 -0.901212750 0.726527396 -0.178198691 -0.446145346 -0.382528919 0.315894176 -0.228369467 -0.850160502 -0.799649308 1.046117669 0.220373042 0.695063345 -0.428594486 0.693549006 1.587883694 0.135497519 0.150223020 1.172360333 0.060271714 1.243480791 -0.571153557 0.638834102 -0.994733991 -0.123233959 -0.111006383 -0.324922785 1.413058248 2.001900798 0.180419191 0.982477834 -0.404442689 -0.401065844 1.441988557 0.028891144 0.142325687 -1.052322524 -0.187526579 -0.238230908 -1.565822766 -1.415450989 -1.612547642 -0.215222950 2.044707819 -2.192702155 -2.199734426 1.263803785 1.004631980 -0.375958507 0.055913744 0.223295863 1.128008355 -0.970950473 0.679085143 -0.575740887 1.127260259 -2.073417356 -0.616418379 -0.422657978 1.212373708 -0.311288304 0.672275205 0.561586602 1.417892234 0.622222266 0.910312478 0.428447168 0.392967351 -0.143537392 0.952297795 0.655191274 0.220926458 -1.199494988 -0.242945704 0.339798279 -0.867969329 -0.450876910 -0.771196357 0.387459201 -1.001108437 -1.860141463 0.871264617 0.367098515 0.066756381 -0.290652237 1.455899235 0.651122543 -1.293946076 1.094973267 -0.374658043 -0.879809630 -0.183196763 -0.628297621 -1.562482388 -1.767553706 -0.004850071 -0.758605370 -0.318683281 0.410057226 0.200485707 -0.304687218 1.143672358 1.000577074 -0.211414406 0.658846685 -0.533117178 -0.404057667 -0.566515621 0.622788008 0.366356607 0.931421909 1.758186994 -1.679904103 0.218096911 -0.196694229 0.032326839 -1.116788085 -1.004385858 0.059249442 -1.017938915 1.293921589 1.124919592 0.068433314 0.017726504 0.199967752 -0.553977894 -0.516451822 -0.702250489 -0.798435836 0.764865812 0.248467709 -0.841402940 -0.055946480 0.365523804 1.374973894 0.226886781 -0.273148878 0.164513752 1.146518301 0.384398566 -1.211551319 0.387066931 0.687345373 -0.139424790 0.377248518 -0.182387716 0.263408888 -0.277163575 -0.800226423 0.409406026 0.584283975 1.180372411 0.792571748 0.391023492 0.031443789 -1.234867831 -1.939958184 -0.538143363 -1.235016883 0.035162336 0.527044964 0.574817025 -1.477379556 -0.262581985 0.005234817 1.083193023 0.742034230 -0.504052112 0.677637470 0.455494207 0.332105376 -0.843290168 0.808208290 1.777961735 -1.531127578 -0.404811652 0.662541982 0.764240013 -1.434080038 -0.171545746 0.685374417 -1.233047958 0.519631828 0.972843575 -0.033137885 0.029756927 0.044875410 0.343827900 0.502805725 0.377403830 0.940455891 -0.671689162 0.189822761 0.950811146 -0.369456758 0.133026471 -1.453840033 0.190211045 -0.005394076 -0.582172287 -1.343875359 0.003431067 1.231572732 -0.465246245 -0.208790557 0.890760367 -0.294809726 -0.097963583 -0.462963284 0.554130010 0.626043039 -1.333963843 -0.284794268 -1.473559613 -0.979328981 0.490816840 1.737441226 0.506317595 0.226917463 1.191705717 0.058599712 -0.076466522 0.130618616 -0.396488923 0.567643901 -0.981973237 -0.872516589 -1.030941923 -0.613214203 1.629298622 -0.930720014 -0.166118665 0.746232685 0.978292681 -0.543453808 0.335529993 1.597022124 0.155861095 -0.722714627 0.244821910 -0.340915550 1.037556705 -0.856709074 0.127557153 -0.729226830 0.178868841 -0.367592178 -0.900718986 -0.014640492 -0.167152198 -1.498484674 0.116438862 0.875487437 1.148335195 -0.376750629 0.420227211 1.145887712 1.370070377 -0.103934199 0.028615293 -1.669716599 0.821032417 0.861200500 -1.132183757 -0.396340743 -0.496726560 0.017238647 -0.218033708 -1.613461658 1.542540200 -1.053184975 0.595778855 -0.160069653 0.789509967 0.318771224 -1.373579369 -1.998595111 -0.520604705 -1.352600856 0.079179522 -0.104429686 -0.754706361 0.375770209 0.402111724 0.882319456 0.250280649 -0.797609398 0.086824193 0.749365816 0.484400238 0.431558444 -1.289839744 0.330771170 0.206356279 -0.151056146 -0.996506862 0.298853453 -0.382991043 -0.692802263 -1.128815058 1.096382498 -0.799036483 -0.074931120 -0.755969076 1.317324998 -0.264710247 -0.279736423 -0.899746562 0.286218865 -1.236963758 1.536954196 -0.606955442 -1.110479501 -0.296995395 -0.791483990 1.058870300 0.310499552 -1.029646689 -0.259358708 0.323395732 2.096739630 -0.543726878 -0.475585732 1.023032717 2.409128131 0.071902737 -1.470205597 0.047579117 -0.470116466 0.198893107 0.396444674 0.163928528 -0.214832206 -0.706031873 -0.942608606 1.098818567 0.734843930 1.122350137 0.274572818 -0.086709699 -1.047729958 0.176427921 -1.121230338 -0.614558505 -0.598118411 -0.289639106 0.361326750 -0.006552634 -0.614461785 0.415112131 0.579570123 0.617723760 0.162468191 -0.246687477 0.597943711 -0.052118330 0.052893913 -0.740351827 -0.063557573 0.979415601 -1.279096295 -0.022528071 -0.154887395 0.269391880 -0.625521806 -0.818662340 -0.167870786 -0.224399403 0.319981182 -0.354985097 0.539763548 0.053901758 -2.709095975 -0.803187045 -0.283757969 -0.354328884 -0.096642762 -0.477198993 0.736090345 0.254749786 -0.335484086 -0.132385782 -0.818300111 0.981318987 0.416640208 -0.691260669 -1.696263248 1.067579698 0.579982487 0.805169139 0.693924512 -0.432976498 0.601332568 0.187766250 1.503013433 -1.260243238 -0.508487830 0.300661560 -2.436931420 -0.815440722 0.708054087 0.261515168 -0.744871894 -0.223189343 -1.024188767 -1.684625440 0.086325913 -0.010381408 1.013929731 0.057298379 -0.834121395 0.547276526 0.469086029 0.978420056 0.514636656 -0.992115126 0.872581042 0.244947248 0.218046693 -0.566321263 0.511608316 0.220488915 -0.671393773 -0.656790795 1.028614522 -0.039045787 -0.705867693 -0.814115097 0.920868441 0.331401587 0.073155736 -0.438537513 
-2.489115543 1.059726107 0.487007018 -2.576784237 -1.756932106 1.966684853 -0.173726877 2.406955796 -4.325712495 0.917543492 -1.430764431 0.994282287 -3.326257663 -2.790330505 0.108167729 -3.484430640 -2.244930597 2.236660264 -1.462213250 -1.584747215 -2.885333883 -1.317346347 0.563782003 1.427137942 -2.609158117 -1.959788617 -3.165458638 -2.997486348 -0.260135339 -1.409840286 -2.351424356 1.218301898 -0.638036851 1.139785114 -1.373361208 -2.549030796 2.293403010 1.073678400 -0.166882530 1.460806313 -2.699055201 0.771830845 -1.510746065 -0.037343343 0.530331323 -1.135683410 -0.989381106 0.881151610 0.442826165 -4.176234234 -5.226662316 0.452692063 -1.007347173 -2.804927445 -0.851943035 1.622164244 1.520058665 3.132225151 -1.942539211 -1.317562069 -0.766077970 -0.810735909 -1.993799872 -1.113363352 1.045707469 2.324170503 -3.045389292 -1.135718917 0.819292098 -0.123679972 -0.904604726 4.470062213 -0.340107014 -1.618677961 -1.978837385 -1.502600052 0.559655371 -0.890712349 -4.865172597 -2.005960808 -3.064988265 -0.400352043 -3.321314992 -1.881788977 -1.144300062 -2.587441808 -3.017572438 1.154389380 -1.268161611 -1.419352541 -3.304628398 0.771150058 -2.730520482 -2.368197853 1.333832746 0.049584510 1.057474408 -0.920475991 -2.478441959 -2.169567088 -1.179010930 1.211586561 1.190650370 1.554960111 0.534123183 -1.150038365 -3.226448878 -3.740619048 1.552563718 -1.307667701 1.431370416 -0.751256544 1.064725274 0.712166149 0.556684667 -2.457734441 -2.592707924 -3.272937721 1.558790501 -0.105792580 -0.969811667 -0.958411353 -2.902555302 -0.848587361 2.137180555 -0.847481866 -1.907887947 -1.576640617 -2.236341897 0.290000213 -1.964545802 -3.579585437 0.545474699 -0.210685581 2.346427429 -3.162408379 2.263724689 0.031600183 1.879578329 -0.822332399 1.221587111 -1.298022005 -2.030701659 -3.346998139 -1.239559077 1.599068345 -2.365491109 -1.066032081 -0.130996459 -0.246373596 -1.319257282 -1.879485259 1.357921642 -1.117637064 -3.686813310 -1.577326113 0.928651253 -2.848142131 0.063730572 -2.401563798 -2.253226982 -2.986791811 1.307262768 2.917848248 1.572467624 -1.149454140 -0.386384183 1.830590289 -1.796190100 -2.095405653 -3.163587816 0.984437097 -1.496204082 -2.593792089 0.354580609 0.418450836 3.399333788 0.046425883 -2.293564291 0.841754676 -2.413255456 -1.690286743 0.981984217 -1.209857660 -1.846206956 3.234903758 -0.625223711 -4.451789619 -2.343470315 -0.761311649 -2.565925091 2.340689595 -1.034370589 -1.125019301 -4.121992649 1.277424254 0.417178701 -3.892132013 -4.026051608 -2.440157885 -0.042729299 2.030074095 -1.602221154 2.266769985 -2.236053267 -1.558751898 0.978846212 -1.116602909 -2.754017445 -0.007582220 
