5 2 1
5 10 3 1 
0.047158390 0.450864375 0.405331584 -0.144308662 0.351374859 -0.339619879 -0.198752771 0.434209545 -0.217368084 -0.289094479 0.458708457 0.329803335 0.401083476 -0.465355573 -0.236777856 0.147460698 -0.000808741 -0.485939353 -0.060420922 -0.047241269 -0.143604846 0.038338316 -0.063676870 0.301867417 0.490361769 0.335920275 -0.145527512 -0.447944940 -0.488982818 -0.428270166 -0.024687435 0.140136111 0.380336924 0.341195134 -0.057512131 0.150424844 0.435201337 -0.270761374 -0.316675314 -0.224434597 -0.260612812 -0.153385725 0.441252885 -0.197986246 0.309930723 0.123095722 -0.099444563 0.102953360 0.572695689 -0.324266521 -0.208304086 0.108138734 -0.215628529 -0.478784068 -0.294396424 -0.121973513 -0.142933439 0.068291373 0.462157048 -0.023656889 
-0.086262021 0.505907253 0.490590359 0.337286130 0.520816010 0.646898176 0.343151580 0.540240161 0.511951748 0.300239787 -0.099234117 0.181875146 0.529328418 -0.018148527 0.151288539 0.218857386 -0.014159212 0.032120634 -0.090544172 0.714617538 0.333776021 0.534314857 0.764431855 0.054931093 0.609859677 0.499154367 -0.248144669 0.610611886 -0.076877352 -0.204116514 0.145129210 0.573782125 0.152465122 
-2.548477840 -2.003478530 -1.549425520 -1.943390143 
